digraph Tree {
node [shape=box] ;
0 [label="odor <= 3.5\nentropy = 0.999\nsamples = 6093\nvalue = [2924, 3169]"] ;
1 [label="odor <= 0.5\nentropy = 0.4\nsamples = 3442\nvalue = [273, 3169]"] ;
0 -> 1 [labeldistance=2.5, labelangle=45, headlabel="True"] ;
2 [label="entropy = 0.0\nsamples = 183\nvalue = [183, 0]"] ;
1 -> 2 ;
3 [label="spore-print-color <= 3.5\nentropy = 0.182\nsamples = 3259\nvalue = [90, 3169]"] ;
1 -> 3 ;
4 [label="entropy = 0.0\nsamples = 2611\nvalue = [0, 2611]"] ;
3 -> 4 ;
5 [label="stalk-root <= 3.0\nentropy = 0.581\nsamples = 648\nvalue = [90, 558]"] ;
3 -> 5 ;
6 [label="spore-print-color <= 4.5\nentropy = 0.995\nsamples = 146\nvalue = [67, 79]"] ;
5 -> 6 ;
7 [label="population <= 4.5\nentropy = 0.588\nsamples = 92\nvalue = [13, 79]"] ;
6 -> 7 ;
8 [label="entropy = 0.0\nsamples = 79\nvalue = [0, 79]"] ;
7 -> 8 ;
9 [label="entropy = 0.0\nsamples = 13\nvalue = [13, 0]"] ;
7 -> 9 ;
10 [label="entropy = 0.0\nsamples = 54\nvalue = [54, 0]"] ;
6 -> 10 ;
11 [label="gill-size <= 0.5\nentropy = 0.268\nsamples = 502\nvalue = [23, 479]"] ;
5 -> 11 ;
12 [label="entropy = 0.0\nsamples = 23\nvalue = [23, 0]"] ;
11 -> 12 ;
13 [label="entropy = 0.0\nsamples = 479\nvalue = [0, 479]"] ;
11 -> 13 ;
14 [label="entropy = 0.0\nsamples = 2651\nvalue = [2651, 0]"] ;
0 -> 14 [labeldistance=2.5, labelangle=-45, headlabel="False"] ;
}